-3.01413119698959,-1.00784982462855,3.50715638853805,-1.69438112235643,-1.86821868511885,-0.198946146075085,-1.52416964994256,1.53822404578291,0.722251878625248,-3.04926055705791,
-0.456303919780004,2.36638578195563,0.514279031343941,-2.14341577188545,2.47945691539228,0.584334549854076,-1.2550635447881,-1.80444489129446,1.27224306093068,-4.47085528210029,
-1.78564304024935,0.97263331235228,1.38555450944656,4.55755141346044,-0.912639764485853,-3.42358270679712,-0.598629642083448,0.127169342495863,-1.73112841367669,-1.44680519848811,
0.555339370304132,-1.57398405704804,-2.26890853407079,-2.17078551165834,1.04070069376036,1.79579944081936,-4.93884323734463,1.31010278721829,0.777509754372979,-0.858593169729357,
2.36413321230556,-0.610463061858854,0.0151055104431725,-4.37613120955874,1.13083667487349,-4.05602995654684,-3.40600409103029,1.06019012237272,-1.50100108681719,2.92154838915324,
-0.859201932524563,-2.11345507904062,3.94591663545045,-2.95163083907222,-0.9702742563813,0.6050310140092,0.209917557599242,-2.21356853244624,-1.92764573728644,1.78550408826994,
-1.35044955536325,-0.738023268678918,0.212191198430439,0.196549698198211,-3.75142694735532,-4.76589910708042,-1.09614394521559,0.170919122131234,2.09020847538001,0.937222193524162,
-4.174918460098,1.52929975696892,-2.72532220073678,0.911053533834515,0.968286026868196,3.90715381297498,-6.13278869599892,-2.52266286548633,-3.61463440734893,2.99140179771593,
-0.675943421850768,5.24075998674418,-1.7122277228773,-2.65978604607104,-0.651860148252986,-1.26073074910883,-0.743351405829736,-1.27168210542476,-1.51125502506993,0.167121929487821,
-1.65466677202988,0.709933571053141,-2.40443405631241,-0.249019942315318,4.45214542692814,0.686098378767032,-0.498565880390705,-0.346898858138434,0.52628021275697,-4.26487512652155,
2.32203547618166,-0.376548611210272,-1.26077247673323,-1.59888512362432,-3.69256186410356,2.34527429528725,-0.703084758741235,2.55476333500222,-1.83544818012913,-2.37348206477341,
-3.45562369229573,0.0295884080615361,-2.82454431573346,3.64564282001573,-1.43551331010822,-0.341546262496836,0.944370288002575,0.682593712068567,-2.00565968945506,1.66687598402297,
-0.502448025953657,2.82734247296903,1.19082424910952,-3.22013413490782,0.755852402483056,-1.5463829342303,-1.34385774414868,-1.56112268563769,-1.72776507306102,1.95205922027955,
-1.64986034333413,-0.397090690258928,-3.42772588119078,-4.90881306095523,1.02661937892563,-3.69161325191414,2.1623874842499,2.51631484364549,-1.48084989730523,1.0622736441148,
-2.35577763642203,-0.58628296716885,-1.44540479401671,-1.42821652929145,3.06538104926643,2.42720591054652,-2.05494809070024,1.50239042136844,-2.38751767298565,-3.00833271568415,
2.90078937776443,-0.351296860165045,2.905895405874,-2.65832937116393,1.32215625429978,-1.93443597385831,1.38671010466385,-1.63449227625588,-5.24975575780299,-0.191740217351034,
0.942765286031561,-0.0650772869724614,-1.19378833008508,0.935030569349345,-1.76882784555711,1.84856809710854,-0.0320304422433452,-0.767339106781589,-1.2365329010507,0.47954982352405,
-0.581269343117142,0.938109908899166,-1.13225592717128,-1.86121800091928,2.76303932264197,-0.0677597959287646,-0.0332178037112266,0.847737564282781,-3.28187831056232,1.20133906595741,
-2.43194871574352,1.30832599478032,-3.44504950022316,-4.46439726071639,0.0166150547862734,2.42617853693141,3.72905822292639,-0.987278352092213,-1.60309569465359,0.805768496668473,
1.42057375886292,-2.24496084526238,-1.1259005995987,2.8322986125753,-3.78703034850557,-0.643044864075478,-1.37039890810777,-1.21845573628306,-3.11426747215541,1.6085432157562,
-0.534247823084272,0.93156388168439,-2.30113400696424,-3.48893518819584,-1.03519100779964,-0.89953931161441,-0.277372515506116,3.60145025757878,0.174746351467267,-2.21132244088396,
-0.736616392684375,2.34086189617589,0.837577134376466,0.840002391364789,-0.82318422500664,-0.192856745502148,0.192615902009224,1.33555211388093,-2.57242103392261,-2.66187221196451,
3.23482493346732,-1.08051351577488,-2.0301195243599,-0.534990930969788,-1.90900121110659,0.291987326179513,-2.13950199719971,3.08212616452054,0.114436422530056,-4.48772660126849,
-1.92142465953167,1.26570484337054,0.682308740728937,-4.43126709930066,0.933930129666834,-1.533678571248,-3.17670164157751,1.23406061863645,1.89252188171916,0.799585150933949,
-1.37627077544603,-1.47422502512079,-1.93387370404329,-2.25242720263997,-2.82840749924746,0.168852331009415,4.15866875048453,-0.510255851447844,-4.71773151354387,-0.107601979152335,
-2.8764128245013,-1.10123253990529,-3.45475319539864,0.256970184597099,2.47374936365627,0.224710721048366,-0.743237087054661,1.72080013712221,1.64118077815412,-0.170466780067762,
1.40590317305219,0.366137322556181,1.07837291279806,-3.19307419690239,0.369409693356146,-0.697629033619692,-0.374382212353029,2.44412604714915,-2.64452692718218,-2.97086490428705,
-0.469025256685312,-1.40832749820051,-0.882523874256123,-3.74170655503962,-1.71893207970862,-0.336195284126238,-1.43491046877311,-2.0796593233545,2.84860811234217,1.51891358543979,
-0.350859037872109,3.45908236320371,-0.936015498039232,-0.502098326082323,0.240816115470858,0.153945544106023,-0.0541339010369657,-1.07426855866971,-2.02322109258517,0.185599263831886,
-1.53191228648004,-2.40312852614654,3.18574953113705,-2.74517865486213,-1.29159136527921,-1.5869225687267,0.165829962766204,3.17698057363761,-1.21775476394262,-2.1803439596306,
2.645848442717,-2.53935527713805,3.44377887410061,0.873586478924411,-1.42605389695623,-1.09320762253971,-4.20782449417489,0.332607832985946,-2.9694313791475,0.402795536825327,
-3.13928649075198,-3.1951333662034,-1.92985937237331,0.468030507459346,-2.72516724419763,0.625254372719467,-0.576977305151641,1.39998570158271,-0.562295797085751,1.75833574887699,
-0.958003955621059,-0.459381280983187,1.04746950362309,-0.269931910353572,-0.536720580720688,-2.57194948593838,1.21130207862642,2.41992206610564,-1.2112021966202,-4.22404812573717,
-0.904214046454606,-0.478657482933383,-0.225809643978355,-2.93518718199762,-1.28764765291049,4.6531392587551,-0.446104362603189,-0.385375896262838,-4.00176235388144,-2.67038986229157,
1.21799255855324,-0.976298253407856,0.295079327217558,-4.33992817608628,0.590687035075962,0.240420110061817,0.68471057344848,-0.535827669709523,1.90015211823776,-2.75220412236774,
-2.040829903881,-2.16954934263764,-0.0310089554042471,0.348724860433637,2.25327140447532,0.163243448553569,0.901374564033572,1.45643422520816,0.351708064714528,-4.97178310705726,
-2.33678258750061,1.29114453356993,-2.00043639162005,-1.39878068755028,2.95766539767031,-1.62491682585456,0.476345859090325,3.01875210625959,-1.13055857519633,-3.49572385112414,
-0.481093575490102,-0.568604854191615,0.406171278862157,1.98522202206833,-1.40612881711601,3.082124219462,-3.64741646196619,-3.74625752047035,-5.76739538098499,2.22485403009755,
-0.839219136169582,-4.77119698515255,-0.00433749647167022,1.09857203120147,3.24581525851689,-0.113604558017149,1.74988671500233,-0.719632866535569,-1.53581852700849,-3.81246466515142,
-1.77183176060643,-2.52527153142277,0.858315194586124,-1.31323749847825,-1.55103074395585,1.73603093727931,-1.93847964658954,-3.98796654702027,1.73381272090972,-1.42406906780193,
-1.54329564335334,-0.663553940633833,-4.55646602198029,1.06755013956556,1.15292441143821,-3.60645272641471,-0.00749936208511262,-2.19061395338548,-1.80721531699629,0.822179170670028,
-0.593975926442718,-0.539005844475258,1.20513787684245,2.95164679837923,-2.56848093881897,-1.67527283955299,-2.51304026669045,3.12025391859046,1.72101298938417,-1.64272267202011,
-1.28507760041402,-0.704181564436898,-2.32491543275093,-2.65498134991678,1.74091793499565,3.37659824931183,0.326386695577026,-0.0780542813878978,1.88400516349463,-2.51902252479677,
-2.39710879161968,0.857303389449746,-1.89776575433366,1.74564201854312,-3.85516877907147,-1.42880773629325,0.431869985102913,-5.09423089576402,4.05576557963748,-3.10094845717002,
-1.3841910868754,1.58625192693157,3.02268449128621,-1.88381276052366,0.548582406469242,2.69340718252062,-2.15971452553055,0.298519437344968,-3.39544673153366,-0.662717643324467,
-2.24214876583571,0.803643797081561,4.38430323421896,3.75301305744414,-1.68402916444766,1.07218864643429,-1.70140886917636,2.27632834787972,-5.43897238528453,-4.39972984971272,
-1.7584211909518,-3.35116217035679,0.0403613361011078,2.45196117067784,-2.5645716408863,1.92447017244695,-1.93148964792001,-0.728344410131766,-1.49955610061173,0.147832622566877,
-3.91663403602272,2.94839238257001,3.41035757959175,-0.32309911585084,-0.758405363610692,0.709186268903982,-1.84608263200872,-1.14802710351614,-1.11515828527173,2.22820788773559,
1.94457168078944,-0.480763045934026,-5.66087297884317,-2.46392947727724,0.165339956161215,1.77019317154059,2.00971379094028,0.428426089134462,-3.09916738868607,4.69712227354164,
1.27386785028796,-0.373572852644179,1.61035141859403,-1.39211393231218,1.30249480639398,-3.86935473042177,0.991711295853339,0.810635002570878,0.893055188487099,-2.78692359131132,
2.2061920605094,-1.65228073546448,-3.52742449640114,1.61549402614323,-0.533047509546875,-3.4035667411463,0.298899676034421,-3.5505332502718,1.36296106469521,0.662813178306393,
-0.200954123069703,1.21329833235897,3.50099863985819,0.599348792851563,1.40504070477109,1.83538406157428,-3.23243951110878,-1.2182892084804,0.596729825575106,-3.61290833327039,
-1.1044330617764,1.37026295918432,2.58475056112481,-2.7279869674462,2.3258594190755,-0.429510929260641,0.392252341382348,-1.79309308954085,-2.68399417417436,-3.28244339957635,
-0.94282994281465,-1.61458502380425,-0.401294157363858,-2.30556841853949,-4.04352161572225,2.21789922297317,1.43923142440023,1.34878154832899,-0.950109325219341,2.01172412753041,
-0.904643424406176,0.0585111896506806,0.0753884628235197,-2.20190564175077,2.645272824643,-0.890460226922416,-2.67466497096072,-1.08813931271613,-3.64661860990165,2.75684028642873,
-0.1788840729537,-2.03396097792136,3.26598074350858,-4.00998906437207,-2.94960144121467,-2.1163174705107,0.544592694247488,-2.96083482131991,-1.3184350523582,-0.0501122200462475,
-1.94064874169009,2.56749305871553,-3.33904305165303,0.188755528794997,-4.33698422692793,1.30942657979481,2.38336516159264,3.71347780148487,-1.14799375882767,-0.864753229816992,
-0.404767660279556,3.35372276681517,-0.521685592608098,-1.2062119219255,-0.437291526484686,0.230294497980413,0.0925716449457042,-0.607604296628664,-1.57283257303215,0.557210290421902,
-0.689947245732704,0.235641854759037,-3.19714764473842,-1.66281754577817,1.94826188499679,-0.0636283962968618,-0.459067265681871,4.00287670120578,-1.98927431412551,1.96177263355176,
0.232121963441051,0.0960887801589456,-0.573793288570196,-0.272149166385594,-1.54424841061935,2.66378058205743,-0.615486526472945,-0.500855124751841,-0.315776170533802,1.03821203541168,
-0.436147483043549,0.614617743994407,-0.914927872977188,-0.576118929052276,4.33297320325016,-0.0291209817398731,-1.30394205954982,-2.06711620068235,-0.804997979373065,-5.10878970573475,
-0.930799096900032,-0.933883238199634,-0.777664561623333,-1.79966034390629,-3.63996277569632,4.29683600492713,-0.873153153360879,-1.26767934575688,-4.35375122085051,1.79702155811581,
-2.6818270881514,-0.806729262803976,1.33954732004366,-2.76753931600081,-2.85339719109428,0.503093086532513,3.4646338106036,-3.35287936260346,1.29181398731244,-1.35844109076444,
-2.1253129560102,-0.244568172096151,-1.66830037114999,0.755542890212888,-1.59502052695323,-3.13800776678617,-0.685634177882874,-1.0514454938106,-1.88439291762041,2.84593394115099,
-0.353853173448685,2.83784075874229,-1.07682034619304,-0.931914000388524,-0.746110437326321,0.335821534347009,-0.0701543394626069,-2.27812768306441,-1.73710213589265,0.591149019054681,
-0.00620871567320758,-0.0983919201745997,-1.3880215297038,-4.59791883803261,-0.369978861739018,4.84923464752862,-2.82656014176181,-0.173815706922873,-2.50021612707799,-3.86544412284431,
-0.365364521319212,3.50334037660795,-1.56554595772692,-0.512204738964664,0.229752578497605,0.160423896016435,-0.18181827425608,-1.17034971119227,-2.01241856710034,0.329242696750955,
0.213291204262456,3.48746730151013,-1.15704899511704,-0.514889998325617,-0.439148730548615,0.827942232494142,0.772757299566961,-1.12356164369851,-3.14118276943668,1.28753560848546,
-1.22251738740521,-2.88630603837892,2.24420369383533,-2.46113077404836,0.917831235003498,-1.7099349784927,-1.19805338561918,-1.99930761323441,-5.08548162596357,3.45609855122295,
-1.95585739933926,-1.49632013625269,-0.683433031516786,-0.255165502875301,-1.06527798801088,-3.79828458365232,3.80525750928806,1.14739820857018,-1.59998123725374,-0.762013354456321,
4.29213502882523,-0.131423478856341,-2.21177871320183,-1.10727655287965,-0.257168414199428,-4.6700559086037,-1.85713267252083,0.734043378111033,-1.28734153069622,0.0744183513333337,
-2.43957136222516,-0.292819321571562,-0.737615219278663,2.71319118315627,-2.20207837692941,-0.458179137232999,-2.55109346696976,4.27384310920319,1.02722695120865,-5.02293730128597,
-1.13437787185354,0.669303512897345,-0.321477265078892,2.50264397664726,0.828065686800541,-4.84258641769472,-1.29933206590355,0.533273470700903,0.515299387539589,-0.672709613962994,
0.280801104767592,1.08774628467808,-2.07635148925374,3.2597117695757,-0.18229898455134,1.88353945597154,-1.31566733652778,-0.319104255663292,-1.05384322876089,0.26068028671483,
3.41311672080285,0.524317750425251,0.397276251577513,-0.399328773125328,-0.769142911064379,-0.908293397739958,1.07702319249988,-5.43382966312354,-4.34891399680093,-1.32651142295222,
-0.947383850876113,1.32411102799529,1.4453388037767,3.6855779611974,1.24139387711948,-4.53042164013671,-0.989128573611096,-1.78179587289203,-2.82867483096447,-2.69015931689547,
-2.49367627534642,-1.18673975259955,-2.49616418503039,-0.413606780436653,-4.8046795979985,-0.133023395302932,4.14976136757231,1.25792206495657,-1.15961194082942,-0.763260642417822,
-0.00152520257658446,-2.43014800825828,3.89575815179534,-0.0200236666344817,-2.47886952886512,1.47637993088762,0.618094651300457,-2.41812888803411,-0.949338793006408,0.604133363908496,
-1.2120340973546,-1.3264003670377,-4.73055591584919,2.34057627574224,-2.06476960951596,2.99284647855191,-0.423047111033015,0.397964029286937,2.86920002959734,0.181268268924821,
-2.42914681098449,0.735641698691866,1.52045774108778,5.20272015391458,-3.50507426405269,-2.66081547682607,-1.88769809807497,2.38777908965485,-4.96810737137462,-5.35774324958898,
